{
  "layers": [
    [
      {
        "nb_inputs": 784,
        "weights": [
          -0.8609789349308017,
          0.33634833167287614,
          0.4825073180808224,
          0.3190944019088302,
          0.8170099021513331,
          0.4906863780490671,
          -0.024242234194878032,
          -0.5603368405592539,
          0.2075898870464019,
          0.5450545294146094,
          -0.3211643933239441,
          -0.9052639864279948,
          0.9919246285418873,
          -0.9100331690062875,
          -0.4060668165335443,
          0.04771835835422255,
          0.033777914962475286,
          -0.8118694315824513,
          -0.0947143287580996,
          0.20521110565013512,
          -0.1358687933118259,
          -0.58976145501181,
          0.5190095734073719,
          0.14353451270493278,
          -0.984199956823925,
          -0.6321341170248114,
          -0.7084005661961363,
          0.515926500050687,
          0.9779283375451328,
          -0.448584613723507,
          -0.5834313182181128,
          0.014957842783463349,
          -0.3416436311436947,
          0.9229909439706641,
          -0.1349125223637598,
          -0.01940113766883877,
          -0.41732292470975313,
          0.7611510243860492,
          0.8918244818542951,
          0.3692800121217362,
          0.7715135939755828,
          -0.032097129599432755,
          -0.8105558692667351,
          -0.30425731540342454,
          0.5854537273420446,
          -0.5624881103634948,
          0.034742607483456776,
          -0.2774397414686172,
          0.032461922442006075,
          -0.2664752971046275,
          0.42952914936863656,
          0.019104352028254112,
          -0.7120507491026722,
          0.8483069158706946,
          0.48434120109984,
          -0.453177951636176,
          -0.5537468229744085,
          0.7863312967858516,
          0.13344140378098251,
          0.2616800943961479,
          -0.2947090198928559,
          0.8432393975318037,
          -0.46938968192120034,
          0.32197927123667236,
          0.8930088994977713,
          0.428201885150165,
          -0.4138679824355464,
          -0.3586408716374437,
          0.4027746769502184,
          0.7318040066239166,
          -0.10829128730446867,
          -0.6653235215514678,
          0.061803641836505135,
          1.0151577545852999,
          0.2971201204031047,
          0.2041272044042297,
          -0.20883002084364416,
          0.5421974455564266,
          0.11368602314601502,
          0.7643469358395217,
          -0.3383385573025183,
          0.2221618445670993,
          0.11826205267410315,
          -0.6286448482632057,
          0.4236675074016736,
          0.6868102166122361,
          -0.02842079016692133,
          0.01860901550468244,
          0.7767739397773363,
          0.17387137001857872,
          0.23591862312837694,
          -0.89273293549986,
          0.1411585416573795,
          0.704980569390934,
          0.011990365758533196,
          -0.7441603533133234,
          0.22445046599075175,
          -0.33106162189765836,
          -0.5194837426461878,
          0.7131599091169285,
          -0.6406885715441962,
          0.3801857997175455,
          0.051268722998585745,
          -0.7838215001378567,
          0.4231461911874224,
          -0.5217137471656869,
          0.32074692488680406,
          -0.07563936093034027,
          0.7280636381198607,
          -0.6210864340454637,
          -0.89696150078658,
          0.4345746598102629,
          -0.6857810195649143,
          0.8031709451840806,
          -0.594571474943417,
          0.6941717880110848,
          -0.2986113647416723,
          -0.22553515110247715,
          -0.9319916521290685,
          -0.345273288729044,
          0.5046003111370924,
          -0.6498099056032419,
          0.11023629155068466,
          -0.5529451258653062,
          0.3523358468571311,
          -0.9544175771967631,
          0.5888094100035403,
          -0.8927041020347809,
          -0.8381147008987482,
          -0.7043003523072714,
          -0.43212152296724443,
          0.42023211638062313,
          -0.09609473066945125,
          0.016038327570582878,
          0.5555875580284948,
          -0.45250875181501865,
          0.48437850968627755,
          0.41150992076005655,
          0.6566929312684152,
          0.8543754503944526,
          -0.240198153870943,
          0.5656893925535043,
          -0.9274591382954259,
          -0.013347319829403083,
          0.4663351064725464,
          0.100394216967608,
          0.634918914808324,
          -0.8975734479412664,
          0.0996906043055379,
          0.22700966087885452,
          0.15711214360361372,
          0.3741835648881393,
          -0.6774724218107562,
          -0.9785652616055991,
          -0.28255616709632975,
          -0.5444415272306576,
          0.7671472664192206,
          -0.20611927274401323,
          -0.5704634169325229,
          0.23379333411914938,
          0.5874561204340136,
          -0.3156322420585845,
          -0.5430929060101515,
          0.13871453431617772,
          -0.679431745174027,
          0.9133855438739545,
          -0.7021931906469364,
          -0.09533488676684441,
          -0.2485978744984687,
          -0.7853046867490774,
          0.46662827665416895,
          0.9153193994098516,
          -0.40243859574501895,
          0.6493944523818813,
          -0.31647423377219147,
          -0.6903242649384383,
          0.4874960205878164,
          0.3151690628360488,
          -0.076639966036669,
          0.4333357462572398,
          -0.3126310278861616,
          -1.4638320023810643,
          -0.880993840924358,
          -1.4138643779914646,
          -0.8979104866583981,
          0.40095071989672226,
          -0.3119507646953509,
          0.3697440904903012,
          0.342714124645694,
          0.3314393766404816,
          0.0813453061064205,
          0.5397327463003789,
          0.016986355082441423,
          -0.7987417304449613,
          -0.6201161801149014,
          -0.5408414869552961,
          0.5012643910156094,
          -0.5817646168766221,
          -0.8281503836291235,
          0.6936962832381088,
          -0.341554030832938,
          -0.061013480037912134,
          0.23203364769290458,
          -0.6745553893658344,
          0.9541253115928556,
          -0.6787023140857787,
          -0.026878146301129734,
          0.37063435217362284,
          -0.0909014043800352,
          -0.5385127357594731,
          -0.8453799511859182,
          -0.6542054284951533,
          -0.27538152640091834,
          0.014546138212626661,
          -0.45465569397314226,
          0.4956965892516392,
          0.06927213349139584,
          -0.6611333541703208,
          0.6664942495223782,
          0.7020089421454013,
          0.10651028963081974,
          -0.7359771310319442,
          -0.8860202160176222,
          -0.797723106448628,
          0.15667554789323015,
          0.7194473984015832,
          0.7144353791532386,
          0.2415979201955238,
          1.1084230575962757,
          0.5002948672459744,
          0.9087257340262836,
          0.7105796886385874,
          -0.21394438829513393,
          0.4448006742314495,
          0.2845150470922836,
          -0.23220990287446802,
          0.04923829788486353,
          -0.21610627696951598,
          -1.3519559475142005,
          -1.7089524312350406,
          -0.17878257156839295,
          0.25760150516514063,
          0.2789752377335746,
          0.7081656380185943,
          0.4402292743594687,
          -0.4973935170773314,
          0.1681964376549702,
          -0.7598720691918691,
          -0.21356761785318237,
          -0.26548200182782367,
          -0.10190352773952893,
          -0.5324442948991314,
          -0.04802509578648175,
          0.1236056299433788,
          -0.17649020937688156,
          0.49086439219911376,
          0.9647454792688177,
          0.518774153527149,
          -0.6181364318501102,
          0.40474372996474955,
          -0.43904452031022856,
          0.39682267048755854,
          0.855303416427692,
          0.016957485008066136,
          0.5999794083877854,
          0.2471770252592673,
          -0.6381081817737562,
          -0.6745542073439467,
          0.20402546758940454,
          0.02902154278966352,
          -0.04166023270635207,
          -0.0665040704564186,
          -0.555028238117129,
          0.5549968226456966,
          0.4504083333576839,
          -0.21262210070487275,
          0.4238869202473565,
          -0.07329986130961143,
          -0.14419859158783932,
          0.4709116938938928,
          0.3111057935359549,
          0.18805230311898358,
          -0.16369621687904642,
          -0.7056954066051427,
          0.8303615740488796,
          -0.41570581189800104,
          1.040899793494257,
          0.002194750522438103,
          0.38104677982543717,
          0.3504298305987353,
          0.1807658289587503,
          1.3146381340149285,
          -0.0914303391510209,
          0.798888350123173,
          -1.2295708071907274,
          -0.8497627695428029,
          0.7341029412037878,
          0.5426215931192215,
          -0.016706059969442404,
          0.23618954393695454,
          0.4963894384480833,
          0.04278706792410665,
          -0.12089559666882521,
          -0.11308640808264063,
          -0.14561957397110206,
          -0.3205230127725404,
          -0.8381033144935737,
          -0.6346125140423442,
          -0.050246147756450844,
          0.9045536013206239,
          -0.15508649787110101,
          0.12527433215028855,
          -0.04688598748074327,
          -0.12664139493482304,
          -0.40959269022441414,
          0.16565124251071928,
          -0.5561700523734178,
          0.7322734337915474,
          -0.1144837893508799,
          0.7793943778599924,
          0.25802698104894695,
          -0.025735489045188856,
          0.12624135182275492,
          -1.2508741846365097,
          -0.35473248881561936,
          -0.4802167851105298,
          0.26166685642647225,
          0.07438040141999316,
          -0.1257688688125558,
          0.09823936213758049,
          0.2076778448989326,
          -0.026515806350634143,
          0.6388317565553197,
          0.6834170227230282,
          -0.7546340726696068,
          0.6322143558563247,
          -0.878922978515775,
          -0.8438661041954088,
          1.0422938113996163,
          0.9241161155929141,
          -0.6749985033226864,
          0.5955091156126644,
          -0.4022631954953724,
          0.9110055792982787,
          -0.19233005451941818,
          0.052349877943382576,
          0.38648359994192,
          0.8860126167230605,
          -0.3774201697191238,
          -1.3351145058747693,
          -0.9512489124177597,
          0.3940742338341065,
          -0.3322112965929291,
          1.3874668615557282,
          -0.3828098523021419,
          0.15696901663830318,
          0.0004443236900765853,
          0.13976016985455136,
          -1.4840559944623748,
          -0.6326011730713254,
          -1.1247826645587737,
          0.19156970107924956,
          -0.9664268828447996,
          -0.7638920954364394,
          -0.013352511675319987,
          0.34287366297806154,
          -0.7146079626661039,
          0.6349180968406543,
          0.22743630683051205,
          0.41014116103914866,
          0.08572670151180134,
          0.2799140452352124,
          -0.06587064132488696,
          -0.1645229410048197,
          1.2513001421625607,
          0.4314737515402912,
          -0.9867810834979934,
          -0.691190588967787,
          -1.3981352821739392,
          -0.9639563476716343,
          -0.08849725934770757,
          0.10602495232543616,
          -0.45122765453953084,
          -0.46713113789715444,
          -0.04291749011758739,
          -0.03034489277830437,
          0.17904292309377445,
          -0.09657026602792362,
          0.29887609213681693,
          -0.19882137211967282,
          0.4408486949720959,
          0.7335758289162286,
          0.6415778445094927,
          -0.5792652138436057,
          1.0262610254020252,
          -0.793119061664806,
          -0.6880389799027946,
          0.45828705379061474,
          -0.19360626163738429,
          0.15603701364083963,
          -0.1208485167384807,
          1.2668068508910975,
          -0.10309371367324222,
          -0.505848101165644,
          -1.2061046504378048,
          -0.7041995913797295,
          -0.7883466571567043,
          -0.05645575805607486,
          -0.4780042943685415,
          0.6369794306935302,
          0.47395803346268506,
          -0.11528731863066137,
          -0.28288673825337884,
          0.2310339656988728,
          -0.329109872128506,
          -0.5233119669813366,
          -0.8736716745021831,
          0.5201755399273926,
          0.5503057585152047,
          0.1290217672123153,
          0.014843576170283977,
          -0.8367493775770866,
          -0.007481208122277982,
          -0.6520488298965941,
          -0.31276371431939204,
          -0.416956463689638,
          0.6071073751288195,
          -0.1987016640047147,
          0.2800155518959373,
          0.19834587368622159,
          -0.14136248808302448,
          -1.2377427594561023,
          -0.7924145735341006,
          -0.049464170263900036,
          -0.5749523562469794,
          -0.21583898506579405,
          -0.45491730873540465,
          0.21498568470500407,
          0.1583059710674981,
          0.04138726606507285,
          -0.4645983871730717,
          0.25031973044336586,
          0.19675894529909405,
          -0.2505796314609649,
          0.8661293177549744,
          -0.47957555232040566,
          -0.1838085117612993,
          -0.6171583090823103,
          -0.6263601645483823,
          -0.718100833266148,
          -0.23444811205952837,
          0.7041519824651125,
          0.8835316020695569,
          1.0725801056522548,
          -0.8006716297776233,
          0.9747581339239126,
          0.028117920692958976,
          -0.33824369650087194,
          -0.856724918152805,
          -1.1025525421571718,
          -1.0351879294049364,
          -1.190128580256512,
          0.24590333710830875,
          0.6889396912477324,
          0.39205519420435614,
          0.2656938120862247,
          0.4289770700322922,
          -0.05340009711204015,
          0.37440086761235397,
          0.052722215130840036,
          0.29637948799639546,
          0.6582571244671969,
          0.28040876121990954,
          0.7508715390994077,
          0.4428456971772495,
          -0.05253309804153045,
          0.9703385012827692,
          -0.6027641073680334,
          0.8394892483700833,
          0.6492308803002584,
          -0.6385741517959583,
          -0.2510699556667916,
          -0.8200763509618062,
          0.8699824664178719,
          -0.4083726397565348,
          -0.5826060893048353,
          -0.231919380981088,
          -0.7081968979650299,
          -1.8938381282323788,
          -0.8518497820093485,
          1.4258185122662346,
          0.1377039541355715,
          -0.06664638099189954,
          -0.05172658500077908,
          0.5701116568558572,
          1.1250687806147046,
          0.7899138639939081,
          0.4071238941064186,
          0.716993262394844,
          -0.6185213907620326,
          -0.8654912221361283,
          0.42022998276692125,
          0.1652245767646422,
          0.34805792881075814,
          0.3831973438300411,
          -0.9126565948196121,
          0.7489929133929769,
          -0.5390471693847746,
          0.14822307119736608,
          -0.5807984284965662,
          0.743481117515124,
          -0.4176150027665626,
          0.09462040714581192,
          -1.283524720834054,
          -0.8510350345248721,
          -1.6300233399545891,
          -0.05865672686608058,
          -0.29790491553169673,
          0.8207131941953864,
          -0.20978441428902764,
          0.44412939884734265,
          0.7604379089606494,
          -0.6389502296954928,
          -0.8399601740451491,
          0.5654701573039141,
          -0.644191147124353,
          -0.6697560747137382,
          0.5504713785582969,
          -1.0324074416828914,
          -0.10285093656810727,
          0.05316076487199758,
          -0.764546250783296,
          -0.6081602563253121,
          0.7843001985932517,
          0.515475427734217,
          0.7332338210965852,
          0.9235508148458518,
          -0.3873382653084744,
          -0.35323224614441084,
          -0.7854802450827051,
          0.31496415387861376,
          -1.363392302128848,
          -0.3240616300978939,
          -1.5151756263310603,
          -1.0673108031599328,
          -0.6817119993986592,
          0.863546188839678,
          0.19985205650055576,
          -0.3551081248621556,
          -0.29945478058148034,
          0.09667599405330843,
          -0.2974815425527263,
          -0.9618946349872101,
          -0.7796348494828438,
          0.5215239915635816,
          -0.8492229674789622,
          0.34649404186585675,
          -0.8021138026910692,
          0.5229032477307848,
          0.37517184349922383,
          -0.16909866787791783,
          0.25887045308698564,
          0.9680102546880487,
          0.08059497455270004,
          -0.9296131760579223,
          0.190580191430483,
          -1.3327735230555957,
          0.25958954216760294,
          -1.6196747105621225,
          -0.8582274120396206,
          0.15498012096720037,
          -1.0351929605527952,
          0.3493942872478233,
          -0.3748200883999742,
          0.35561645876620307,
          0.29804708125729007,
          -0.4883867803503694,
          0.41363708499247587,
          0.005803754527373558,
          0.28401209407681083,
          -0.4205674450191073,
          -0.476612912652148,
          -1.0741191182757814,
          -0.6436456129377922,
          0.27066658980036257,
          0.7778663315151483,
          -0.6966489288270487,
          -0.4372116159784556,
          -0.03901741446382408,
          -0.7183803544631928,
          -0.6170980039759066,
          -0.47933939642486273,
          0.5181646611773568,
          -0.6078541738569099,
          -0.8826351967382209,
          -0.8262262225752586,
          -1.2553860905683587,
          -0.6226439065890859,
          -0.39313928659711533,
          -0.577154902062936,
          0.35068665630055335,
          0.1810066507371197,
          0.12902880326835597,
          0.22908560568887226,
          0.6175551454302838,
          0.7531516178485878,
          -0.3103091049715924,
          0.7474465798417398,
          -0.49539407406066993,
          -0.886175221441734,
          0.43346000053846906,
          -0.9203853338826452,
          0.5312705054429753,
          -0.9869089895405894,
          -0.6262839571582404,
          -0.41458201205435286,
          0.11115155484473264,
          0.846123672551635,
          -0.7062818582923527,
          0.31931062355230166,
          -0.6687790827656876,
          0.38004531254174134,
          0.3171754986085346,
          0.34091200705657165,
          -1.0871264546638162,
          -0.2626099389594711,
          -0.29929544793524737,
          0.5958612278114332,
          -1.1689065437932125,
          0.24453719322348963,
          0.052211771742790965,
          0.8042230949459709,
          -0.6712665841477665,
          -0.453500250470211,
          1.0447273481341675,
          0.8917164051369916,
          0.14794872996234218,
          -0.21040231830199876,
          0.4530357824609034,
          0.23520861771060453,
          -0.525150896559016,
          0.2932326840260915,
          0.5000004022360183,
          0.4651801260545385,
          -0.05462435545759203,
          0.5673093295412577,
          -0.19426650395667014,
          -0.8254298424929555,
          0.6652114470600793,
          -0.9314481153990491,
          0.13807814133322666,
          0.14220249980858288,
          -1.152057291692576,
          0.5890313323191432,
          -0.8324696151508265,
          -0.4448172465931806,
          -1.0212498958850114,
          -0.04459549515593204,
          -0.5669857415644356,
          0.7490226732871331,
          0.5274582944535254,
          1.2011937981554448,
          0.2717556728835473,
          0.6672868047659734,
          0.4603271534583564,
          -0.4273997884301888,
          -1.2456148725445584,
          0.23268641273934407,
          -0.5165329083609994,
          -0.5678879996726995,
          0.677045920156869,
          0.2917423038868592,
          0.6555321195784867,
          -0.6044001701309465,
          -0.585748468584473,
          -0.2580505709794398,
          0.6374869494972839,
          0.9525343348998456,
          0.871956968720115,
          0.21393880784162025,
          -0.5263681529127461,
          0.9575247839099822,
          -0.4765091370568361,
          0.6210069584855725,
          -0.6748563368103337,
          0.10864490239833462,
          0.5599730733670413,
          -0.5390520238905294,
          -0.2281600832605816,
          0.026916459663839223,
          -0.731476139056919,
          -0.2314122972409034,
          -0.6265380474659326,
          -0.7339332856530313,
          0.3514395473736086,
          0.7718319470468296,
          0.5012136423101299,
          -0.13479748343364722,
          -0.5906224600731387,
          -0.5711184719982301,
          -0.276081197791866,
          0.1753432009843745,
          -0.9197271189381617,
          -0.43660080952436403,
          0.5169192107403453,
          -0.5923895875429768,
          -0.07507007410064086,
          -0.4649698312109352,
          -0.1382553126060546,
          0.7439290021022398,
          0.28354337739543256,
          0.019085728153982098,
          0.5067422698856747,
          -0.29887407956125195,
          -0.28698648300826657,
          -0.37409564186840094,
          -0.263537585348186,
          -0.1358863760949691,
          0.06563681862839786,
          0.09651118415670713,
          -1.0084902922948566,
          0.1237766910190007,
          -0.4764215513169134,
          -0.5286895287058792,
          0.19625328562510727,
          0.6061521422293306,
          -0.07778580864596295,
          -0.6412346307170707,
          0.26777962520230436,
          0.5536561868335532,
          -0.5774308697870547,
          0.12164195004946396,
          -0.5901579550061795,
          -0.05380369642924825,
          0.9540801661747264,
          0.02512117522123196,
          0.8361031160591945,
          -0.8250588530341795,
          -0.7185605782652679,
          -0.5318801858395695,
          -0.6767985650841122,
          -0.9586349679063335,
          -0.14073293147677074,
          -0.27181933900394883,
          -0.23278229747952064,
          -1.0436688830292016,
          0.3228599339798975,
          -0.4690417437610141,
          -0.4037927564025783,
          -0.40890841638030323,
          -0.18653330272875657,
          -0.6622381327393531,
          -0.15228132096586627,
          -0.29015359193840573,
          -0.4602546034337245,
          0.27141901141736535,
          0.9410774647052552,
          -0.9182660619649604,
          -0.16861627582563532,
          0.7171907862276392,
          0.9951286721461219,
          -0.6192058474848997,
          -0.4134885152081702,
          -0.10891955983446999,
          0.046100868915372115,
          0.11122910379877744,
          -0.8681233010829953,
          -0.13194828737831038,
          0.6927616678718761,
          -0.1822990185071731,
          0.01124287862478905,
          0.6471708880008727,
          -0.12677464945752445,
          0.21022431738982614,
          -0.08172304569021335,
          0.6897542498626841,
          -0.5808157308700004,
          -0.8773673177783542,
          0.4892340155810095,
          -0.9920578859122421,
          0.6250794870701062,
          0.9552191253689974,
          0.2996977332169639,
          0.8388281252529051
        ],
        "bias": -0.04848818695131275,
        "activation": {
          "Sigmoid": null
        },
        "average_gradient": true,
        "last_value": -12.081092869970838,
        "last_input": [
          0.0,
          0.0,
          0.0,
          0.0,
          0.0,
          0.0,
          0.0,
          0.0,
          0.0,
          0.0,
          0.0,
          0.0,
          0.0,
          0.0,
          0.0,
          0.0,
          0.0,
          0.0,
          0.0,
          0.0,
          0.0,
          0.0,
          0.0,
          0.0,
          0.0,
          0.0,
          0.0,
          0.0,
          0.0,
          0.0,
          0.0,
          0.0,
          0.0,
          0.0,
          0.0,
          0.0,
          0.0,
          0.0,
          0.0,
          0.0,
          0.0,
          0.0,
          0.0,
          0.0,
          0.0,
          0.0,
          0.0,
          0.0,
          0.0,
          0.0,
          0.0,
          0.0,
          0.0,
          0.0,
          0.0,
          0.0,
          0.0,
          0.0,
          0.0,
          0.0,
          0.0,
          0.0,
          0.0,
          0.0,
          0.0,
          0.0,
          0.0,
          0.0,
          0.0,
          0.0,
          0.0,
          0.0,
          0.0,
          0.0,
          0.0,
          0.0,
          0.0,
          0.0,
          0.0,
          0.0,
          0.0,
          0.0,
          0.0,
          0.0,
          0.0,
          0.0,
          0.0,
          0.0,
          0.0,
          0.0,
          0.0,
          0.0,
          0.0,
          0.0,
          0.0,
          0.0,
          0.0,
          0.0,
          0.0,
          0.0,
          0.0,
          0.0,
          0.0,
          0.0,
          0.0,
          0.0,
          0.0,
          0.0,
          0.0,
          0.0,
          0.0,
          0.0,
          0.0,
          0.0,
          0.0,
          0.0,
          0.0,
          0.0,
          0.0,
          0.0,
          0.0,
          0.0,
          0.0,
          0.0,
          0.0,
          0.0,
          0.0,
          0.0,
          0.0,
          0.0,
          0.0,
          0.0,
          0.0,
          0.0,
          0.0,
          0.0,
          0.0,
          0.0,
          0.0,
          0.0,
          0.0,
          0.0,
          0.0,
          0.0,
          0.0,
          0.0,
          0.0,
          0.0,
          0.0,
          0.0,
          0.0,
          0.0,
          0.0,
          0.0,
          0.0,
          0.0,
          0.0,
          0.0,
          0.10588235294117647,
          0.6039215686274509,
          0.9058823529411765,
          0.08627450980392157,
          0.0,
          0.0,
          0.0,
          0.0,
          0.0,
          0.0,
          0.0,
          0.0,
          0.0,
          0.0,
          0.0,
          0.0,
          0.0,
          0.0,
          0.0,
          0.0,
          0.0,
          0.0,
          0.0,
          0.0,
          0.0,
          0.050980392156862744,
          0.11372549019607843,
          0.4666666666666667,
          0.8470588235294118,
          0.996078431372549,
          0.803921568627451,
          0.0,
          0.0,
          0.0,
          0.0,
          0.0,
          0.0,
          0.0,
          0.0,
          0.0,
          0.0,
          0.0,
          0.0,
          0.0,
          0.0,
          0.0,
          0.0,
          0.0,
          0.0,
          0.0,
          0.0,
          0.0,
          0.6980392156862745,
          0.8509803921568627,
          0.996078431372549,
          0.996078431372549,
          0.996078431372549,
          0.788235294117647,
          0.12549019607843137,
          0.0,
          0.0,
          0.0,
          0.0,
          0.0,
          0.0,
          0.0,
          0.0,
          0.0,
          0.0,
          0.0,
          0.0,
          0.0,
          0.0,
          0.0,
          0.0,
          0.0,
          0.0,
          0.0,
          0.0,
          0.5450980392156862,
          0.996078431372549,
          0.996078431372549,
          0.996078431372549,
          0.9607843137254902,
          0.4588235294117647,
          0.011764705882352941,
          0.0,
          0.0,
          0.0,
          0.0,
          0.0,
          0.0,
          0.0,
          0.0,
          0.0,
          0.0,
          0.0,
          0.0,
          0.0,
          0.0,
          0.0,
          0.0,
          0.0,
          0.0,
          0.0,
          0.0,
          0.00784313725490196,
          0.7254901960784313,
          0.996078431372549,
          0.611764705882353,
          0.3843137254901961,
          0.15294117647058825,
          0.0,
          0.0,
          0.0,
          0.0,
          0.0,
          0.0,
          0.0,
          0.0,
          0.0,
          0.0,
          0.0,
          0.0,
          0.0,
          0.0,
          0.0,
          0.0,
          0.0,
          0.0,
          0.0,
          0.0,
          0.0,
          0.0,
          0.0784313725490196,
          0.996078431372549,
          0.9333333333333333,
          0.12549019607843137,
          0.0,
          0.0,
          0.0,
          0.0,
          0.0,
          0.0,
          0.0,
          0.0,
          0.0,
          0.0,
          0.0,
          0.0,
          0.0,
          0.0,
          0.0,
          0.0,
          0.0,
          0.0,
          0.0,
          0.0,
          0.0,
          0.0,
          0.0,
          0.0,
          0.30196078431372547,
          0.996078431372549,
          0.9921568627450981,
          0.8196078431372549,
          0.8509803921568627,
          0.26666666666666666,
          0.0,
          0.0,
          0.0,
          0.0,
          0.0,
          0.0,
          0.0,
          0.0,
          0.0,
          0.0,
          0.0,
          0.0,
          0.0,
          0.0,
          0.0,
          0.0,
          0.0,
          0.0,
          0.0,
          0.0,
          0.0,
          0.09803921568627451,
          0.8431372549019608,
          0.996078431372549,
          0.996078431372549,
          0.9411764705882353,
          0.996078431372549,
          0.45098039215686275,
          0.0,
          0.0,
          0.0,
          0.0,
          0.0,
          0.0,
          0.0,
          0.0,
          0.0,
          0.0,
          0.0,
          0.0,
          0.0,
          0.0,
          0.0,
          0.0,
          0.0,
          0.0,
          0.0,
          0.0,
          0.0,
          0.592156862745098,
          0.996078431372549,
          0.996078431372549,
          0.33725490196078434,
          0.11372549019607843,
          0.996078431372549,
          0.45098039215686275,
          0.0,
          0.0,
          0.0,
          0.0,
          0.0,
          0.0,
          0.0,
          0.0,
          0.0,
          0.0,
          0.0,
          0.0,
          0.0,
          0.0,
          0.0,
          0.0,
          0.0,
          0.0,
          0.0,
          0.0,
          0.5372549019607843,
          0.996078431372549,
          0.8823529411764706,
          0.16862745098039217,
          0.00392156862745098,
          0.34509803921568627,
          0.996078431372549,
          0.23921568627450981,
          0.0,
          0.0,
          0.0,
          0.0,
          0.0,
          0.0,
          0.0,
          0.0,
          0.0,
          0.0,
          0.0,
          0.0,
          0.0,
          0.0,
          0.0,
          0.0,
          0.0,
          0.0,
          0.0,
          0.0,
          0.6980392156862745,
          0.8627450980392157,
          0.16470588235294117,
          0.0,
          0.0,
          0.8117647058823529,
          0.7529411764705882,
          0.01568627450980392,
          0.0,
          0.0,
          0.0,
          0.0,
          0.0,
          0.0,
          0.0,
          0.0,
          0.0,
          0.0,
          0.0,
          0.0,
          0.0,
          0.0,
          0.0,
          0.0,
          0.0,
          0.0,
          0.0,
          0.0,
          0.10980392156862745,
          0.011764705882352941,
          0.0,
          0.0,
          0.12941176470588237,
          0.9372549019607843,
          0.4392156862745098,
          0.0,
          0.0,
          0.0,
          0.0,
          0.0,
          0.0,
          0.0,
          0.0,
          0.0,
          0.0,
          0.0,
          0.0,
          0.0,
          0.0,
          0.0,
          0.0,
          0.0,
          0.0,
          0.0,
          0.0,
          0.0,
          0.0,
          0.0,
          0.0,
          0.0,
          0.4627450980392157,
          0.996078431372549,
          0.3215686274509804,
          0.0,
          0.0,
          0.0,
          0.0,
          0.0,
          0.0,
          0.0,
          0.0,
          0.0,
          0.0,
          0.0,
          0.0,
          0.0,
          0.0,
          0.0,
          0.0,
          0.0,
          0.0,
          0.0,
          0.0,
          0.0,
          0.0,
          0.0,
          0.0,
          0.14901960784313725,
          0.9686274509803922,
          0.9607843137254902,
          0.18823529411764706,
          0.0,
          0.0,
          0.0,
          0.0,
          0.0,
          0.0,
          0.0,
          0.0,
          0.0,
          0.0,
          0.0,
          0.0,
          0.0,
          0.0,
          0.0,
          0.0,
          0.0,
          0.0,
          0.0,
          0.0,
          0.0,
          0.0,
          0.0,
          0.023529411764705882,
          0.7843137254901961,
          0.996078431372549,
          0.5607843137254902,
          0.0,
          0.0,
          0.0,
          0.0,
          0.0,
          0.0,
          0.0,
          0.0,
          0.0,
          0.0,
          0.0,
          0.0,
          0.0,
          0.0,
          0.0,
          0.0,
          0.0,
          0.0,
          0.0,
          0.0,
          0.0,
          0.0,
          0.0,
          0.0,
          0.6196078431372549,
          1.0,
          0.8392156862745098,
          0.26666666666666666,
          0.0,
          0.0,
          0.0,
          0.0,
          0.0,
          0.0,
          0.0,
          0.0,
          0.0,
          0.0,
          0.0,
          0.0,
          0.0,
          0.0,
          0.0,
          0.0,
          0.0,
          0.0,
          0.0,
          0.0,
          0.0,
          0.0,
          0.00784313725490196,
          0.4666666666666667,
          0.9607843137254902,
          0.8627450980392157,
          0.11764705882352941,
          0.0,
          0.0,
          0.0,
          0.0,
          0.0,
          0.0,
          0.0,
          0.0,
          0.0,
          0.0,
          0.0,
          0.0,
          0.0,
          0.0,
          0.0,
          0.0,
          0.0,
          0.0,
          0.0,
          0.0,
          0.0,
          0.0,
          0.027450980392156862,
          0.6588235294117647,
          0.996078431372549,
          0.8470588235294118,
          0.10980392156862745,
          0.0,
          0.0,
          0.0,
          0.0,
          0.0,
          0.0,
          0.0,
          0.0,
          0.0,
          0.0,
          0.0,
          0.0,
          0.0,
          0.0,
          0.0,
          0.0,
          0.0,
          0.0,
          0.0,
          0.0,
          0.0,
          0.0,
          0.396078431372549,
          0.8980392156862745,
          0.996078431372549,
          0.792156862745098,
          0.12549019607843137,
          0.0,
          0.0,
          0.0,
          0.0,
          0.0,
          0.0,
          0.0,
          0.0,
          0.0,
          0.0,
          0.0,
          0.0,
          0.0,
          0.0,
          0.0,
          0.0,
          0.0,
          0.0,
          0.0,
          0.0,
          0.0,
          0.0,
          0.0,
          0.3215686274509804,
          0.996078431372549,
          0.596078431372549,
          0.011764705882352941,
          0.0,
          0.0,
          0.0,
          0.0,
          0.0,
          0.0,
          0.0,
          0.0,
          0.0,
          0.0,
          0.0,
          0.0,
          0.0,
          0.0,
          0.0,
          0.0,
          0.0,
          0.0,
          0.0,
          0.0,
          0.0,
          0.0,
          0.0,
          0.0,
          0.0,
          0.0,
          0.0,
          0.0,
          0.0,
          0.0,
          0.0,
          0.0,
          0.0,
          0.0,
          0.0,
          0.0,
          0.0,
          0.0,
          0.0,
          0.0,
          0.0,
          0.0,
          0.0,
          0.0,
          0.0,
          0.0,
          0.0,
          0.0,
          0.0,
          0.0,
          0.0,
          0.0,
          0.0,
          0.0,
          0.0,
          0.0,
          0.0,
          0.0,
          0.0,
          0.0,
          0.0,
          0.0,
          0.0,
          0.0,
          0.0,
          0.0,
          0.0,
          0.0,
          0.0,
          0.0,
          0.0,
          0.0,
          0.0,
          0.0,
          0.0,
          0.0,
          0.0,
          0.0,
          0.0,
          0.0,
          0.0,
          0.0,
          0.0,
          0.0,
          0.0,
          0.0,
          0.0,
          0.0,
          0.0,
          0.0,
          0.0,
          0.0,
          0.0,
          0.0,
          0.0,
          0.0,
          0.0,
          0.0,
          0.0,
          0.0
        ],
        "dw": [
          0.0,
          0.0,
          0.0,
          0.0,
          0.0,
          0.0,
          0.0,
          0.0,
          0.0,
          0.0,
          0.0,
          0.0,
          0.0,
          0.0,
          0.0,
          0.0,
          0.0,
          0.0,
          0.0,
          0.0,
          0.0,
          0.0,
          0.0,
          0.0,
          0.0,
          0.0,
          0.0,
          0.0,
          0.0,
          0.0,
          0.0,
          0.0,
          0.0,
          0.0,
          0.0,
          0.0,
          0.0,
          0.0,
          0.0,
          0.0,
          0.0,
          0.0,
          0.0,
          0.0,
          0.0,
          0.0,
          0.0,
          0.0,
          0.0,
          0.0,
          0.0,
          0.0,
          0.0,
          0.0,
          0.0,
          0.0,
          0.0,
          0.0,
          0.0,
          0.0,
          0.0,
          0.0,
          0.0,
          0.0,
          0.0,
          0.0,
          0.0,
          0.0,
          0.0,
          0.0,
          0.0,
          0.0,
          0.0,
          0.0,
          0.0,
          0.0,
          0.0,
          0.0,
          0.0,
          0.0,
          0.0,
          0.0,
          0.0,
          0.0,
          0.0,
          0.0,
          0.0,
          0.0,
          0.0,
          0.0,
          0.0,
          0.0,
          0.0,
          0.0,
          0.0,
          0.0,
          0.0,
          0.0,
          0.0,
          0.0,
          0.0,
          0.0,
          0.0,
          0.0,
          0.0,
          0.0,
          0.0,
          0.0,
          0.0,
          0.0,
          0.0,
          0.0,
          0.0,
          0.0,
          0.0,
          0.0,
          0.0,
          0.0,
          0.0,
          0.0,
          0.0,
          0.0,
          0.0,
          0.0,
          0.0,
          0.0,
          0.0,
          0.0,
          0.0,
          0.0,
          0.0,
          0.0,
          0.0,
          0.0,
          0.0,
          0.0,
          0.0,
          0.0,
          0.0,
          0.0,
          0.0,
          0.0,
          0.0,
          0.0,
          0.0,
          0.0,
          0.0,
          0.0,
          0.0,
          0.0,
          0.0,
          0.0,
          0.0,
          0.0,
          0.0,
          0.0,
          0.0,
          0.0,
          0.0,
          0.0,
          0.0,
          0.0,
          0.0,
          0.0,
          0.0,
          0.0,
          0.0,
          0.0,
          0.0,
          0.0,
          0.0,
          0.0,
          0.0,
          0.0,
          0.0,
          0.0,
          0.0,
          0.0,
          0.0,
          0.0,
          0.0,
          0.0,
          0.0,
          0.0,
          0.0,
          0.0,
          0.0,
          0.0,
          0.0,
          0.0,
          0.0,
          0.0,
          0.0,
          0.0,
          0.0,
          0.0,
          0.0,
          0.0,
          0.0,
          0.0,
          0.0,
          0.0,
          0.0,
          0.0,
          0.0,
          0.0,
          0.0,
          0.0,
          0.0,
          0.0,
          0.0,
          0.0,
          0.0,
          0.0,
          0.0,
          0.0,
          0.0,
          0.0,
          0.0,
          0.0,
          0.0,
          0.0,
          0.0,
          0.0,
          0.0,
          0.0,
          0.0,
          0.0,
          0.0,
          0.0,
          0.0,
          0.0,
          0.0,
          0.0,
          0.0,
          0.0,
          0.0,
          0.0,
          0.0,
          0.0,
          0.0,
          0.0,
          0.0,
          0.0,
          0.0,
          0.0,
          0.0,
          0.0,
          0.0,
          0.0,
          0.0,
          0.0,
          0.0,
          0.0,
          0.0,
          0.0,
          0.0,
          0.0,
          0.0,
          0.0,
          0.0,
          0.0,
          0.0,
          0.0,
          0.0,
          0.0,
          0.0,
          0.0,
          0.0,
          0.0,
          0.0,
          0.0,
          0.0,
          0.0,
          0.0,
          0.0,
          0.0,
          0.0,
          0.0,
          0.0,
          0.0,
          0.0,
          0.0,
          0.0,
          0.0,
          0.0,
          0.0,
          0.0,
          0.0,
          0.0,
          0.0,
          0.0,
          0.0,
          0.0,
          0.0,
          0.0,
          0.0,
          0.0,
          0.0,
          0.0,
          0.0,
          0.0,
          0.0,
          0.0,
          0.0,
          0.0,
          0.0,
          0.0,
          0.0,
          0.0,
          0.0,
          0.0,
          0.0,
          0.0,
          0.0,
          0.0,
          0.0,
          0.0,
          0.0,
          0.0,
          0.0,
          0.0,
          0.0,
          0.0,
          0.0,
          0.0,
          0.0,
          0.0,
          0.0,
          0.0,
          0.0,
          0.0,
          0.0,
          0.0,
          0.0,
          0.0,
          0.0,
          0.0,
          0.0,
          0.0,
          0.0,
          0.0,
          0.0,
          0.0,
          0.0,
          0.0,
          0.0,
          0.0,
          0.0,
          0.0,
          0.0,
          0.0,
          0.0,
          0.0,
          0.0,
          0.0,
          0.0,
          0.0,
          0.0,
          0.0,
          0.0,
          0.0,
          0.0,
          0.0,
          0.0,
          0.0,
          0.0,
          0.0,
          0.0,
          0.0,
          0.0,
          0.0,
          0.0,
          0.0,
          0.0,
          0.0,
          0.0,
          0.0,
          0.0,
          0.0,
          0.0,
          0.0,
          0.0,
          0.0,
          0.0,
          0.0,
          0.0,
          0.0,
          0.0,
          0.0,
          0.0,
          0.0,
          0.0,
          0.0,
          0.0,
          0.0,
          0.0,
          0.0,
          0.0,
          0.0,
          0.0,
          0.0,
          0.0,
          0.0,
          0.0,
          0.0,
          0.0,
          0.0,
          0.0,
          0.0,
          0.0,
          0.0,
          0.0,
          0.0,
          0.0,
          0.0,
          0.0,
          0.0,
          0.0,
          0.0,
          0.0,
          0.0,
          0.0,
          0.0,
          0.0,
          0.0,
          0.0,
          0.0,
          0.0,
          0.0,
          0.0,
          0.0,
          0.0,
          0.0,
          0.0,
          0.0,
          0.0,
          0.0,
          0.0,
          0.0,
          0.0,
          0.0,
          0.0,
          0.0,
          0.0,
          0.0,
          0.0,
          0.0,
          0.0,
          0.0,
          0.0,
          0.0,
          0.0,
          0.0,
          0.0,
          0.0,
          0.0,
          0.0,
          0.0,
          0.0,
          0.0,
          0.0,
          0.0,
          0.0,
          0.0,
          0.0,
          0.0,
          0.0,
          0.0,
          0.0,
          0.0,
          0.0,
          0.0,
          0.0,
          0.0,
          0.0,
          0.0,
          0.0,
          0.0,
          0.0,
          0.0,
          0.0,
          0.0,
          0.0,
          0.0,
          0.0,
          0.0,
          0.0,
          0.0,
          0.0,
          0.0,
          0.0,
          0.0,
          0.0,
          0.0,
          0.0,
          0.0,
          0.0,
          0.0,
          0.0,
          0.0,
          0.0,
          0.0,
          0.0,
          0.0,
          0.0,
          0.0,
          0.0,
          0.0,
          0.0,
          0.0,
          0.0,
          0.0,
          0.0,
          0.0,
          0.0,
          0.0,
          0.0,
          0.0,
          0.0,
          0.0,
          0.0,
          0.0,
          0.0,
          0.0,
          0.0,
          0.0,
          0.0,
          0.0,
          0.0,
          0.0,
          0.0,
          0.0,
          0.0,
          0.0,
          0.0,
          0.0,
          0.0,
          0.0,
          0.0,
          0.0,
          0.0,
          0.0,
          0.0,
          0.0,
          0.0,
          0.0,
          0.0,
          0.0,
          0.0,
          0.0,
          0.0,
          0.0,
          0.0,
          0.0,
          0.0,
          0.0,
          0.0,
          0.0,
          0.0,
          0.0,
          0.0,
          0.0,
          0.0,
          0.0,
          0.0,
          0.0,
          0.0,
          0.0,
          0.0,
          0.0,
          0.0,
          0.0,
          0.0,
          0.0,
          0.0,
          0.0,
          0.0,
          0.0,
          0.0,
          0.0,
          0.0,
          0.0,
          0.0,
          0.0,
          0.0,
          0.0,
          0.0,
          0.0,
          0.0,
          0.0,
          0.0,
          0.0,
          0.0,
          0.0,
          0.0,
          0.0,
          0.0,
          0.0,
          0.0,
          0.0,
          0.0,
          0.0,
          0.0,
          0.0,
          0.0,
          0.0,
          0.0,
          0.0,
          0.0,
          0.0,
          0.0,
          0.0,
          0.0,
          0.0,
          0.0,
          0.0,
          0.0,
          0.0,
          0.0,
          0.0,
          0.0,
          0.0,
          0.0,
          0.0,
          0.0,
          0.0,
          0.0,
          0.0,
          0.0,
          0.0,
          0.0,
          0.0,
          0.0,
          0.0,
          0.0,
          0.0,
          0.0,
          0.0,
          0.0,
          0.0,
          0.0,
          0.0,
          0.0,
          0.0,
          0.0,
          0.0,
          0.0,
          0.0,
          0.0,
          0.0,
          0.0,
          0.0,
          0.0,
          0.0,
          0.0,
          0.0,
          0.0,
          0.0,
          0.0,
          0.0,
          0.0,
          0.0,
          0.0,
          0.0,
          0.0,
          0.0,
          0.0,
          0.0,
          0.0,
          0.0,
          0.0,
          0.0,
          0.0,
          0.0,
          0.0,
          0.0,
          0.0,
          0.0,
          0.0,
          0.0,
          0.0,
          0.0,
          0.0,
          0.0,
          0.0,
          0.0,
          0.0,
          0.0,
          0.0,
          0.0,
          0.0,
          0.0,
          0.0,
          0.0,
          0.0,
          0.0,
          0.0,
          0.0,
          0.0,
          0.0,
          0.0,
          0.0,
          0.0,
          0.0,
          0.0,
          0.0,
          0.0,
          0.0,
          0.0,
          0.0,
          0.0,
          0.0,
          0.0,
          0.0,
          0.0,
          0.0,
          0.0,
          0.0,
          0.0,
          0.0,
          0.0,
          0.0,
          0.0,
          0.0,
          0.0,
          0.0,
          0.0,
          0.0,
          0.0,
          0.0,
          0.0,
          0.0,
          0.0,
          0.0,
          0.0,
          0.0,
          0.0,
          0.0,
          0.0,
          0.0,
          0.0,
          0.0,
          0.0,
          0.0,
          0.0,
          0.0,
          0.0,
          0.0,
          0.0,
          0.0,
          0.0,
          0.0,
          0.0,
          0.0,
          0.0,
          0.0,
          0.0,
          0.0,
          0.0,
          0.0,
          0.0,
          0.0,
          0.0,
          0.0,
          0.0,
          0.0,
          0.0,
          0.0,
          0.0,
          0.0,
          0.0,
          0.0,
          0.0,
          0.0,
          0.0,
          0.0,
          0.0,
          0.0,
          0.0,
          0.0,
          0.0,
          0.0,
          0.0
        ],
        "da": [
          0.0,
          0.0,
          0.0,
          0.0,
          0.0,
          0.0,
          0.0,
          0.0,
          0.0,
          0.0,
          0.0,
          0.0,
          0.0,
          0.0,
          0.0,
          0.0,
          0.0,
          0.0,
          0.0,
          0.0,
          0.0,
          0.0,
          0.0,
          0.0,
          0.0,
          0.0,
          0.0,
          0.0,
          0.0,
          0.0,
          0.0,
          0.0,
          0.0,
          0.0,
          0.0,
          0.0,
          0.0,
          0.0,
          0.0,
          0.0,
          0.0,
          0.0,
          0.0,
          0.0,
          0.0,
          0.0,
          0.0,
          0.0,
          0.0,
          0.0,
          0.0,
          0.0,
          0.0,
          0.0,
          0.0,
          0.0,
          0.0,
          0.0,
          0.0,
          0.0,
          0.0,
          0.0,
          0.0,
          0.0,
          0.0,
          0.0,
          0.0,
          0.0,
          0.0,
          0.0,
          0.0,
          0.0,
          0.0,
          0.0,
          0.0,
          0.0,
          0.0,
          0.0,
          0.0,
          0.0,
          0.0,
          0.0,
          0.0,
          0.0,
          0.0,
          0.0,
          0.0,
          0.0,
          0.0,
          0.0,
          0.0,
          0.0,
          0.0,
          0.0,
          0.0,
          0.0,
          0.0,
          0.0,
          0.0,
          0.0,
          0.0,
          0.0,
          0.0,
          0.0,
          0.0,
          0.0,
          0.0,
          0.0,
          0.0,
          0.0,
          0.0,
          0.0,
          0.0,
          0.0,
          0.0,
          0.0,
          0.0,
          0.0,
          0.0,
          0.0,
          0.0,
          0.0,
          0.0,
          0.0,
          0.0,
          0.0,
          0.0,
          0.0,
          0.0,
          0.0,
          0.0,
          0.0,
          0.0,
          0.0,
          0.0,
          0.0,
          0.0,
          0.0,
          0.0,
          0.0,
          0.0,
          0.0,
          0.0,
          0.0,
          0.0,
          0.0,
          0.0,
          0.0,
          0.0,
          0.0,
          0.0,
          0.0,
          0.0,
          0.0,
          0.0,
          0.0,
          0.0,
          0.0,
          0.0,
          0.0,
          0.0,
          0.0,
          0.0,
          0.0,
          0.0,
          0.0,
          0.0,
          0.0,
          0.0,
          0.0,
          0.0,
          0.0,
          0.0,
          0.0,
          0.0,
          0.0,
          0.0,
          0.0,
          0.0,
          0.0,
          0.0,
          0.0,
          0.0,
          0.0,
          0.0,
          0.0,
          0.0,
          0.0,
          0.0,
          0.0,
          0.0,
          0.0,
          0.0,
          0.0,
          0.0,
          0.0,
          0.0,
          0.0,
          0.0,
          0.0,
          0.0,
          0.0,
          0.0,
          0.0,
          0.0,
          0.0,
          0.0,
          0.0,
          0.0,
          0.0,
          0.0,
          0.0,
          0.0,
          0.0,
          0.0,
          0.0,
          0.0,
          0.0,
          0.0,
          0.0,
          0.0,
          0.0,
          0.0,
          0.0,
          0.0,
          0.0,
          0.0,
          0.0,
          0.0,
          0.0,
          0.0,
          0.0,
          0.0,
          0.0,
          0.0,
          0.0,
          0.0,
          0.0,
          0.0,
          0.0,
          0.0,
          0.0,
          0.0,
          0.0,
          0.0,
          0.0,
          0.0,
          0.0,
          0.0,
          0.0,
          0.0,
          0.0,
          0.0,
          0.0,
          0.0,
          0.0,
          0.0,
          0.0,
          0.0,
          0.0,
          0.0,
          0.0,
          0.0,
          0.0,
          0.0,
          0.0,
          0.0,
          0.0,
          0.0,
          0.0,
          0.0,
          0.0,
          0.0,
          0.0,
          0.0,
          0.0,
          0.0,
          0.0,
          0.0,
          0.0,
          0.0,
          0.0,
          0.0,
          0.0,
          0.0,
          0.0,
          0.0,
          0.0,
          0.0,
          0.0,
          0.0,
          0.0,
          0.0,
          0.0,
          0.0,
          0.0,
          0.0,
          0.0,
          0.0,
          0.0,
          0.0,
          0.0,
          0.0,
          0.0,
          0.0,
          0.0,
          0.0,
          0.0,
          0.0,
          0.0,
          0.0,
          0.0,
          0.0,
          0.0,
          0.0,
          0.0,
          0.0,
          0.0,
          0.0,
          0.0,
          0.0,
          0.0,
          0.0,
          0.0,
          0.0,
          0.0,
          0.0,
          0.0,
          0.0,
          0.0,
          0.0,
          0.0,
          0.0,
          0.0,
          0.0,
          0.0,
          0.0,
          0.0,
          0.0,
          0.0,
          0.0,
          0.0,
          0.0,
          0.0,
          0.0,
          0.0,
          0.0,
          0.0,
          0.0,
          0.0,
          0.0,
          0.0,
          0.0,
          0.0,
          0.0,
          0.0,
          0.0,
          0.0,
          0.0,
          0.0,
          0.0,
          0.0,
          0.0,
          0.0,
          0.0,
          0.0,
          0.0,
          0.0,
          0.0,
          0.0,
          0.0,
          0.0,
          0.0,
          0.0,
          0.0,
          0.0,
          0.0,
          0.0,
          0.0,
          0.0,
          0.0,
          0.0,
          0.0,
          0.0,
          0.0,
          0.0,
          0.0,
          0.0,
          0.0,
          0.0,
          0.0,
          0.0,
          0.0,
          0.0,
          0.0,
          0.0,
          0.0,
          0.0,
          0.0,
          0.0,
          0.0,
          0.0,
          0.0,
          0.0,
          0.0,
          0.0,
          0.0,
          0.0,
          0.0,
          0.0,
          0.0,
          0.0,
          0.0,
          0.0,
          0.0,
          0.0,
          0.0,
          0.0,
          0.0,
          0.0,
          0.0,
          0.0,
          0.0,
          0.0,
          0.0,
          0.0,
          0.0,
          0.0,
          0.0,
          0.0,
          0.0,
          0.0,
          0.0,
          0.0,
          0.0,
          0.0,
          0.0,
          0.0,
          0.0,
          0.0,
          0.0,
          0.0,
          0.0,
          0.0,
          0.0,
          0.0,
          0.0,
          0.0,
          0.0,
          0.0,
          0.0,
          0.0,
          0.0,
          0.0,
          0.0,
          0.0,
          0.0,
          0.0,
          0.0,
          0.0,
          0.0,
          0.0,
          0.0,
          0.0,
          0.0,
          0.0,
          0.0,
          0.0,
          0.0,
          0.0,
          0.0,
          0.0,
          0.0,
          0.0,
          0.0,
          0.0,
          0.0,
          0.0,
          0.0,
          0.0,
          0.0,
          0.0,
          0.0,
          0.0,
          0.0,
          0.0,
          0.0,
          0.0,
          0.0,
          0.0,
          0.0,
          0.0,
          0.0,
          0.0,
          0.0,
          0.0,
          0.0,
          0.0,
          0.0,
          0.0,
          0.0,
          0.0,
          0.0,
          0.0,
          0.0,
          0.0,
          0.0,
          0.0,
          0.0,
          0.0,
          0.0,
          0.0,
          0.0,
          0.0,
          0.0,
          0.0,
          0.0,
          0.0,
          0.0,
          0.0,
          0.0,
          0.0,
          0.0,
          0.0,
          0.0,
          0.0,
          0.0,
          0.0,
          0.0,
          0.0,
          0.0,
          0.0,
          0.0,
          0.0,
          0.0,
          0.0,
          0.0,
          0.0,
          0.0,
          0.0,
          0.0,
          0.0,
          0.0,
          0.0,
          0.0,
          0.0,
          0.0,
          0.0,
          0.0,
          0.0,
          0.0,
          0.0,
          0.0,
          0.0,
          0.0,
          0.0,
          0.0,
          0.0,
          0.0,
          0.0,
          0.0,
          0.0,
          0.0,
          0.0,
          0.0,
          0.0,
          0.0,
          0.0,
          0.0,
          0.0,
          0.0,
          0.0,
          0.0,
          0.0,
          0.0,
          0.0,
          0.0,
          0.0,
          0.0,
          0.0,
          0.0,
          0.0,
          0.0,
          0.0,
          0.0,
          0.0,
          0.0,
          0.0,
          0.0,
          0.0,
          0.0,
          0.0,
          0.0,
          0.0,
          0.0,
          0.0,
          0.0,
          0.0,
          0.0,
          0.0,
          0.0,
          0.0,
          0.0,
          0.0,
          0.0,
          0.0,
          0.0,
          0.0,
          0.0,
          0.0,
          0.0,
          0.0,
          0.0,
          0.0,
          0.0,
          0.0,
          0.0,
          0.0,
          0.0,
          0.0,
          0.0,
          0.0,
          0.0,
          0.0,
          0.0,
          0.0,
          0.0,
          0.0,
          0.0,
          0.0,
          0.0,
          0.0,
          0.0,
          0.0,
          0.0,
          0.0,
          0.0,
          0.0,
          0.0,
          0.0,
          0.0,
          0.0,
          0.0,
          0.0,
          0.0,
          0.0,
          0.0,
          0.0,
          0.0,
          0.0,
          0.0,
          0.0,
          0.0,
          0.0,
          0.0,
          0.0,
          0.0,
          0.0,
          0.0,
          0.0,
          0.0,
          0.0,
          0.0,
          0.0,
          0.0,
          0.0,
          0.0,
          0.0,
          0.0,
          0.0,
          0.0,
          0.0,
          0.0,
          0.0,
          0.0,
          0.0,
          0.0,
          0.0,
          0.0,
          0.0,
          0.0,
          0.0,
          0.0,
          0.0,
          0.0,
          0.0,
          0.0,
          0.0,
          0.0,
          0.0,
          0.0,
          0.0,
          0.0,
          0.0,
          0.0,
          0.0,
          0.0,
          0.0,
          0.0,
          0.0,
          0.0,
          0.0,
          0.0,
          0.0,
          0.0,
          0.0,
          0.0,
          0.0,
          0.0,
          0.0,
          0.0,
          0.0,
          0.0,
          0.0,
          0.0,
          0.0,
          0.0,
          0.0,
          0.0,
          0.0,
          0.0,
          0.0,
          0.0,
          0.0,
          0.0,
          0.0,
          0.0,
          0.0,
          0.0,
          0.0,
          0.0,
          0.0,
          0.0,
          0.0,
          0.0,
          0.0,
          0.0,
          0.0,
          0.0,
          0.0,
          0.0,
          0.0,
          0.0,
          0.0,
          0.0,
          0.0,
          0.0,
          0.0,
          0.0,
          0.0,
          0.0,
          0.0,
          0.0,
          0.0,
          0.0,
          0.0,
          0.0,
          0.0,
          0.0,
          0.0,
          0.0,
          0.0,
          0.0,
          0.0,
          0.0,
          0.0,
          0.0,
          0.0,
          0.0,
          0.0,
          0.0,
          0.0,
          0.0,
          0.0,
          0.0,
          0.0,
          0.0,
          0.0,
          0.0,
          0.0,
          0.0,
          0.0,
          0.0,
          0.0
        ],
        "db": 0.0,
        "nb_evals": 0
      },
      {
        "nb_inputs": 784,
        "weights": [
          0.9190301671311684,
          0.05742693019915457,
          -0.23352452598135787,
          -0.6360682611948929,
          0.9228685810434364,
          0.012127264172449914,
          0.2531289742454357,
          0.7578679133265025,
          0.834278465277903,
          0.6784137341559935,
          0.7100300123869119,
          0.27026352024271527,
          0.030555092268466377,
          -0.5651998723522033,
          -0.05692764320163034,
          -0.13077899741842547,
          0.8849621063020945,
          -0.0684063290729704,
          0.4328720196607294,
          0.4216299920701394,
          0.7106670303562848,
          0.005000726209378081,
          -0.020238556023187693,
          0.2589513586434049,
          0.5495401451423589,
          -0.46846534086357106,
          0.2641107432508343,
          -0.26459095471365934,
          -0.7755482649569425,
          -0.7797529456892982,
          0.14952337482344102,
          -0.008518164053133104,
          -0.8781796264479599,
          0.7402370495678655,
          -0.7892672082704812,
          0.11308138898053029,
          -0.8058004584423938,
          -0.07028259614272589,
          0.7487361618636232,
          -0.31461900084176053,
          0.831229513518317,
          0.2901273574975049,
          -0.543897407863657,
          0.1581054762405909,
          -0.07461154564459609,
          0.9505623473079907,
          -0.8183923507163448,
          -0.0993025556457338,
          -0.6924239632092717,
          0.6792621952217267,
          0.6026427514470771,
          0.10225607124136744,
          0.00034116003813000617,
          -0.4022687055081908,
          0.7700899052690868,
          -0.8519391175025393,
          0.9384040052895388,
          -0.9731203054517248,
          -0.22688877375719652,
          -0.9862482572900566,
          -0.04586330977379944,
          -0.30617604487924877,
          0.08784353624006087,
          0.6360010682064591,
          -0.5443340005686645,
          -0.05991986345775359,
          0.7616054937949874,
          -0.8776117943489024,
          -0.6081903113170678,
          0.3997258744476801,
          -0.8506116977594819,
          -0.7491578420557661,
          0.7984622792455907,
          0.01569595513343579,
          -0.844697185550831,
          0.6695934757035341,
          -0.8235610277976346,
          -0.31320970381403956,
          0.6054328898351606,
          0.722930859313717,
          -0.05351364364351352,
          0.42720588303720775,
          0.6435443899506581,
          -0.4342409749918408,
          0.9886267343007162,
          0.42838484968375834,
          0.9428499241823318,
          -0.217924205898899,
          0.9376896668306625,
          -0.6841819491667058,
          -0.12112445433511601,
          -0.6050228339227987,
          -0.9538693918783642,
          0.38499116573647174,
          0.10147788573879886,
          -0.5147333497919233,
          0.41135410885659984,
          0.759185967772779,
          0.6581692348308735,
          0.6087608330130725,
          -0.541226568790471,
          0.16125001604766853,
          0.45015922850330053,
          0.18625503800710907,
          -0.46344101368970886,
          -0.16553960137896637,
          0.037459791581799844,
          -0.019564924748214207,
          0.44318866429645276,
          -0.3558799279515948,
          0.3564572587018208,
          0.4459196695959162,
          0.32494304203380553,
          0.6072944237119925,
          -0.03172089009572634,
          0.214800179063374,
          -0.9193317041923591,
          -0.6439323193886121,
          -0.7492754098260509,
          0.36020119021892427,
          -0.17883526060986943,
          -0.22088452862723637,
          0.8851982587286603,
          0.34166270727594095,
          -0.007129324119387657,
          1.395574536053587,
          -0.027173734139832068,
          0.16354559329757323,
          0.1581486831075087,
          0.540230953903785,
          -0.2321164148346472,
          -0.23533034059855348,
          0.35062916425141677,
          -0.46692822837867376,
          -0.8825288229621276,
          0.3850408107172279,
          -0.6392664396244739,
          0.7169789944152448,
          0.997585980272122,
          0.7998258642474556,
          -0.538960642815556,
          0.9757115484384836,
          0.4474422888463431,
          0.4953814426867478,
          0.061822844198212185,
          -0.6229707124883554,
          0.13396535719683392,
          1.257732346853837,
          0.3878597425882165,
          0.13086375659716226,
          0.2736551897913291,
          1.1625727780598711,
          -0.7231496318677669,
          0.017805692450360396,
          0.3259090338818648,
          0.40253782553755196,
          0.08474858395324106,
          0.018457478277558347,
          0.24110513279533255,
          -0.5556203611069174,
          -0.027882397612237663,
          -0.22334947782034442,
          -1.3676661409091195,
          -0.017243224013977373,
          0.08637850856698032,
          -0.8711429775005599,
          0.9551472555303004,
          0.30709872825768036,
          -0.28893935566587015,
          -0.7476431976189633,
          0.8543506328477246,
          -0.6100174230361886,
          -0.014722844647925868,
          0.22701330153999094,
          0.3712958187968149,
          0.1521693003709867,
          0.8595802093507844,
          0.34227192132534123,
          -0.2818601653689991,
          0.7848913603387252,
          -0.48489843571167823,
          0.5756992045737835,
          -0.1660011165496201,
          0.059431447865609104,
          0.12562317908469606,
          0.14118491902275776,
          -0.06643451705609892,
          -0.48802001258042477,
          0.9185923928375704,
          -0.26269267867757595,
          0.1297046936702517,
          -0.4530063826855703,
          -1.0376418494889255,
          0.07635768049933163,
          0.05994120990508319,
          0.49590559853286725,
          -0.6056111643049311,
          -0.3034713079662222,
          -0.6824447041552101,
          0.37423573803081595,
          -0.15425031774015352,
          1.5190324826146788,
          0.17206926881490997,
          0.19606991635875298,
          -0.4483623620514719,
          0.47015769744311126,
          -0.37892825538195857,
          0.2710290540874617,
          0.8231906571079829,
          0.3213566929976864,
          0.6332473958631477,
          -0.12777262705767295,
          0.28062512927545913,
          0.031102121436609346,
          0.0031157389791023286,
          0.9156251323100413,
          -0.4486055772339452,
          -0.4500113620492957,
          -0.11884854886434681,
          -1.0910532991224684,
          -0.19108349611425945,
          0.6427947362012372,
          -0.31384734031079203,
          -0.8095455209619394,
          -0.06271382299278144,
          0.6522009771845159,
          -0.0013008807685994145,
          1.2460235086579787,
          0.08909175640833562,
          0.07610899960500064,
          0.33187752305545754,
          0.6137856861744351,
          0.9516788519065523,
          0.4197125563346165,
          0.555792717194713,
          0.30051923571760397,
          0.3069765755405105,
          0.26264522142890556,
          0.23944770311675767,
          0.3268205125656131,
          0.07084568923024709,
          0.175411695948802,
          0.07481788915346298,
          0.1777576692842245,
          0.43933505735831724,
          0.4194701902034081,
          0.3532457254148204,
          -1.5127697591361589,
          -1.040927937374513,
          -1.0771585904564012,
          0.8435301233925154,
          0.9573150805155559,
          0.0013075377575581782,
          -0.34209229509893696,
          -0.49683627506398237,
          1.3027525806958131,
          0.4087167008441838,
          0.9534931755806638,
          -0.563281864061985,
          -0.44790389943751774,
          0.5662348603347855,
          -0.03913724514956925,
          -0.13584848585385517,
          -0.9244854328692638,
          -1.0026764544074498,
          -1.3112564018915205,
          -0.09480609479966465,
          1.7160848307717984,
          0.3154274614483019,
          0.42394914784147114,
          0.3064566421801899,
          -0.21799998867784598,
          -0.2250156947411899,
          -0.3911049095774298,
          0.33831264663504923,
          -0.895039946647441,
          -0.5994012514163505,
          0.14466802242276447,
          -0.893819354300094,
          0.33674129016751164,
          0.9876743351072762,
          -0.2225238000683233,
          -0.626867938217892,
          -0.09698267987231939,
          1.2172455968787859,
          0.5092167018164597,
          -1.0045506947354026,
          -1.3446352447561176,
          -1.9113641236216343,
          -1.343153792195125,
          -2.2607568056658387,
          -1.9614875366132396,
          -2.131461255558034,
          -0.8127455329404693,
          -0.8869450238414001,
          -0.07385736295840391,
          0.44712997347546335,
          0.488167963798117,
          0.08083550817094214,
          0.18985499533536648,
          0.3972140803604643,
          -0.016328096848464722,
          -0.901254273731224,
          -0.21506394229918513,
          0.340434080656227,
          0.21098104491119252,
          -0.14791500416215253,
          -0.3767137918816595,
          0.9919048046719174,
          0.15909394328255586,
          0.9896100418113807,
          0.24264009747953025,
          -1.0303569149220129,
          -1.8114159833881878,
          -1.6191346091081285,
          -1.4270882915545096,
          -1.9849283101155968,
          -2.464879834358446,
          -2.1036039691150332,
          -0.534332113943317,
          -0.21170092182829475,
          -1.179722881731668,
          0.17138743892226788,
          -0.0769032112121316,
          0.48097948108062183,
          0.47037805048988524,
          0.9990954937634612,
          -0.4594246009884211,
          0.8135753604124993,
          -0.10918939470699941,
          -0.39946925391861043,
          0.39878017757363643,
          0.5279215946565482,
          -0.4417979834742743,
          0.653405342767038,
          0.33740489311773714,
          -0.17641158509494292,
          0.12009563741704914,
          -0.5266292263710932,
          -0.3221554376552429,
          -1.0701425020209345,
          -0.2659018053036228,
          -2.420456003644017,
          -1.2371126776059584,
          -1.9151747397697572,
          -0.6436367564613346,
          0.050726392883061446,
          -0.5515875520033515,
          0.39065103410631435,
          -0.9699547612171163,
          -0.24051891800258696,
          0.36956633491917895,
          -0.20278996895262122,
          -0.22975836260221386,
          -0.2915895253127225,
          -0.18462823886869453,
          -0.46586503473109486,
          -0.14475862485719004,
          -0.41809686105643673,
          -0.4686096718250797,
          0.3761326653799985,
          0.6251729932642893,
          -0.32134834577280785,
          -0.35623996997788987,
          -0.5990672865575023,
          0.9609739731921794,
          -0.7272889981955801,
          0.27470465895355656,
          0.1355707425920985,
          -0.006729366085858236,
          -1.6276971743808892,
          -1.7095192501705314,
          -0.5341334794510384,
          -0.2035460257239918,
          -0.05827815645445141,
          -0.5712586410271868,
          0.2628597404821407,
          -0.6261600351530733,
          0.392064407000102,
          -0.41383067196188544,
          0.39445722894155155,
          -0.376295324522693,
          0.043584751654679656,
          0.11138309190618456,
          -0.07814299457141126,
          -0.19710987951168,
          -1.1447313791880922,
          -1.1591057252773866,
          0.6670522113914467,
          -0.5091043209715183,
          0.050238813450555406,
          0.25449164490372683,
          -0.43773791429492703,
          -0.9336717471909731,
          0.9095954338733389,
          -0.41420947830387517,
          0.46293682788216206,
          -0.02457096468275386,
          -0.5130469645059448,
          0.8662861983571177,
          -0.3171125863067166,
          0.5190857725620572,
          0.5319912795136948,
          -0.2561909375374962,
          -0.18635335027259958,
          -0.12893123443610316,
          -0.2607980592677179,
          -0.5119135959664877,
          0.6340313096363643,
          -0.4358782372616092,
          0.8330124448037668,
          0.08490502894596727,
          0.007502780940301073,
          0.6289588492379115,
          -0.9900500256724252,
          -0.35730885372992105,
          0.7040993554904826,
          -0.024118652800865687,
          -0.15663755262093562,
          0.19286758382056787,
          0.3365547980079701,
          -0.6501977408232508,
          0.7661105320985795,
          0.846296772779092,
          -0.7581375464422507,
          -0.7488571296057903,
          0.7952545813243618,
          0.33010254960670465,
          0.06304456376487821,
          -0.10252691648035857,
          -0.26559208703284204,
          0.09964435039182937,
          -0.1240875782749672,
          -0.02896180692067859,
          0.29781784683492163,
          0.21220228323045418,
          0.08710651826751378,
          -0.0818887732169097,
          -0.26971203569659163,
          -0.11762137150134355,
          -0.283267085456561,
          0.061572646205040035,
          0.5270479302858566,
          0.8895557948592815,
          -0.176838077368542,
          -0.61570298719372,
          -0.5049504585913948,
          -0.07119098970825848,
          0.40011714700135,
          0.759744540983375,
          0.1944614420997684,
          -0.5651391932217329,
          0.8044006133379298,
          0.8139266055417342,
          -0.08959428095432388,
          0.38454482225222253,
          0.16743579666910718,
          -0.07399434807741019,
          -0.29167114543436734,
          -0.1608965953271063,
          0.203410177812096,
          -0.32460015412366466,
          0.3361606281046626,
          -0.055933940956719996,
          0.4301849740575497,
          -0.013610408697374763,
          0.9118859941973316,
          0.9425850562874986,
          -0.257171351060236,
          0.619074313366722,
          0.07579858378659869,
          -0.12757491412758917,
          0.5348830811293538,
          -0.35374041096859327,
          0.3170325621848858,
          0.30747901111547393,
          -0.7598236646476104,
          -0.16466452649567417,
          0.08607658192827172,
          -0.40157654831593187,
          1.3462948990605381,
          -0.8077210134243166,
          -0.3024140250677612,
          -0.32872349300938297,
          -0.46794294529572406,
          0.484883211104937,
          -0.7763767640054899,
          -0.8790547248833148,
          -0.6590448854643005,
          0.8748649181880743,
          0.09341775718572008,
          -0.5911135726302537,
          -0.038798568166675394,
          -0.08616088320546415,
          -0.7618886902867956,
          0.26390469499336633,
          -0.3266297924252534,
          0.6792899511946706,
          -0.1825714592160035,
          0.8256758998319292,
          -0.2819216762857562,
          -0.5221759915200219,
          -0.529497324260427,
          0.9673058643335521,
          -0.1912981460582568,
          0.7407198545828878,
          0.2833589917686089,
          1.0388127796138107,
          0.06080954463642511,
          0.1969195175027814,
          -0.4328677487009579,
          -0.3850718625960712,
          -0.7678242580198722,
          -0.13986635266215436,
          0.4092558792115984,
          0.38362242773272237,
          -1.0054350939701786,
          0.4817592788362264,
          0.2436012711266629,
          0.4497014880034354,
          0.627549556569187,
          0.41175470301690403,
          0.6820550334328875,
          0.32588414579420544,
          -0.3786694003173587,
          0.48755990673294963,
          0.5734108758883861,
          -0.7610596850221596,
          0.6696396113127024,
          -0.35473975015497095,
          -0.26387279588536156,
          0.730196854642364,
          -0.58997686556076,
          0.26508288864154084,
          -0.047547952489446405,
          1.1259294487692437,
          1.1790328944679693,
          0.06616526564636044,
          1.0510521951327805,
          0.5750360286668689,
          0.5572957045439026,
          -0.23067623427353917,
          -0.3885371294813871,
          -0.3527488451872131,
          -0.20703611914560474,
          0.11995643173606008,
          0.19231399982424005,
          0.013547729311281146,
          0.22739647518491707,
          0.4431154628691526,
          0.5802242279983986,
          0.1286204164494801,
          0.05193416681850333,
          0.6611392285614162,
          0.4847126751366635,
          0.44578734849732926,
          -0.5302231621953745,
          0.15645559369453585,
          0.48906721905191336,
          -0.5759674153906913,
          0.1366209890182275,
          -0.2295802162204374,
          -0.5042301532093914,
          0.5833316297731472,
          0.2405417472906547,
          -0.18025888832585737,
          0.23669357806650848,
          -0.013071365656272323,
          -0.7480868448349866,
          0.040410021468855174,
          -0.3643328558652562,
          0.2530188011951667,
          0.13891287625536702,
          -1.0070141124103238,
          -0.16477064777014613,
          0.9249555373242353,
          0.4898439767182789,
          0.22630011109285972,
          0.16690215711676928,
          0.40113538685172717,
          0.6285009412961321,
          0.5217298087579448,
          0.5676451097899129,
          -0.3491002781377064,
          0.2879244562257647,
          -0.21378866445270242,
          0.7555609148108505,
          0.4953048330400898,
          0.04496389109611215,
          0.9366173489989759,
          -0.4482689666600754,
          0.01958012549716617,
          0.8779012853637542,
          0.1524649553774747,
          -0.5933165604841623,
          0.16339416760056577,
          -0.2710233002845039,
          -0.38759908525340087,
          0.6996803411934694,
          -0.39510129614345185,
          -0.40038389366128146,
          0.04310105759574057,
          -0.16280812267375508,
          -0.35940325515889604,
          0.12723595080135885,
          0.4792338262979924,
          0.4453565298200405,
          0.07504687256212232,
          -0.28427930140081853,
          -0.2113622030330396,
          0.044426107760389806,
          0.06946670161080674,
          -0.07785838060242696,
          0.9071030802986648,
          -0.8884960032828184,
          -0.9657173949186109,
          0.35005646429601533,
          -0.8510308995746286,
          0.03111523977930145,
          -0.606065617665502,
          1.1715560071254045,
          -0.2357408018633905,
          0.2515011475646135,
          0.7465208196901253,
          -0.10908893058468959,
          0.49411760488347917,
          -0.4903831914134783,
          -0.12297303408743353,
          0.006629550743813299,
          -0.43805443389601495,
          -0.3893445953308511,
          -0.4667061252344329,
          -0.7462329799428814,
          0.12380928162464479,
          0.29177468656925115,
          1.0261724756836053,
          0.5325276597857139,
          0.5939225818229744,
          -1.1009538806643857,
          -0.8967477138487039,
          0.26186017979660736,
          -0.19704121066969604,
          0.6986443439185531,
          -0.6392707863435724,
          -0.2740185025356938,
          0.7550884213188516,
          0.983752459786261,
          -0.5144150139707323,
          -0.33497771929485104,
          0.3105313199397089,
          1.1715127677773258,
          0.8127230459695197,
          0.2250573935782845,
          -0.5154739593337413,
          0.1844919334511468,
          -0.17481709028618167,
          -0.1192771204490229,
          -0.6150959300141753,
          -0.08271710015341345,
          -0.22318948217168932,
          -0.1904270584566181,
          -0.8653824022000406,
          0.055053217013682584,
          0.7006210024912821,
          -0.4151679357959557,
          0.42551010295357694,
          -0.07168396359031148,
          -0.020197670530482124,
          0.8902592225915748,
          -0.5652881320375553,
          0.0766052905277664,
          0.9271360982262608,
          -0.40080629717965466,
          -0.0841906485409345,
          -0.1448336249081494,
          0.6661996269390742,
          -0.1944788553890578,
          -0.12652860243311886,
          0.801909790639737,
          -0.11617577398122139,
          -0.2546738979670827,
          0.5408967848167977,
          0.6363996976615621,
          -0.7503130076788023,
          0.28638049729940496,
          0.770046099751114,
          -0.3632395533185828,
          -0.3722220965542557,
          -0.041742880719589794,
          -0.7534606142132733,
          -0.895716383112192,
          -0.22262896467228693,
          -0.6381327346189425,
          -0.7645839519908483,
          0.0705849721608783,
          0.311770857872116,
          -0.5534072470330855,
          0.11464281046032497,
          -0.9953640306243494,
          -0.7787439168566159,
          -0.7255470212324566,
          0.35512578373571246,
          0.38608629395434996,
          0.1610004526231635,
          0.5238519739094173,
          -0.17689746932123998,
          0.8645056644442295,
          0.03745669846782276,
          -0.2985827487545403,
          -0.13833031930647327,
          -0.26159685950291595,
          1.2461568068152467,
          -0.22235573091726804,
          0.7273724436454987,
          0.6547930978773927,
          -0.09852267207305555,
          -0.8410267521558377,
          -0.6846796694706756,
          -1.1282344731080083,
          -0.40135490452349193,
          -0.6967102725204734,
          -0.758568602170682,
          -0.21955666446586639,
          0.3732545842927801,
          -0.3552285613182779,
          -0.37363177785761637,
          0.9080972750707043,
          -0.7974013049047106,
          0.4104002490495244,
          -0.9985546234013464,
          -0.37157286547572954,
          -0.3435357385283604,
          0.2996473217240692,
          -0.04686074153086256,
          -0.6639217731739626,
          0.27824595202403424,
          0.7473689612154372,
          0.1874123502083715,
          -0.9185586866831379,
          -0.6830074823446556,
          0.41928565343274676,
          0.8456002761085275,
          -0.33058838128403023,
          0.5151450185351714,
          0.8630135627234509,
          -0.49164036061938476,
          -0.8073432503500315,
          -0.7222761858527749,
          0.2464806003312563,
          -0.07335836095893107,
          0.7796413585824856,
          0.41575727439891325,
          -0.13558845437016243,
          -0.42113522026614125,
          -0.23423797235795885,
          -0.35833251958624945,
          -0.3069069626862624,
          0.22187505320376344,
          -0.4771511232034593,
          0.19627769040934995,
          -0.2206990667244778,
          0.3994988530098353,
          0.43777763800708297,
          0.3286247994895584,
          -0.41550565813457296,
          -0.6585406797291696,
          -0.21180622992918305,
          -0.05218030738902228,
          0.08902531074353512,
          -0.8713531091596902,
          -0.014573566134372736,
          -0.1723026862459006,
          0.073167975625257,
          0.7486018627330144,
          -0.10060626652254116,
          0.07133386785870423,
          0.23685478562025475,
          -0.17550193417811105,
          0.3811898630219975,
          -0.1603031071660733,
          -0.9815823185933424,
          0.745770341048906,
          -0.2027937210502213,
          0.10940934177396676
        ],
        "bias": -1.132903379596468,
        "activation": {
          "Sigmoid": null
        },
        "average_gradient": true,
        "last_value": -2.7468434889514026,
        "last_input": [
          0.0,
          0.0,
          0.0,
          0.0,
          0.0,
          0.0,
          0.0,
          0.0,
          0.0,
          0.0,
          0.0,
          0.0,
          0.0,
          0.0,
          0.0,
          0.0,
          0.0,
          0.0,
          0.0,
          0.0,
          0.0,
          0.0,
          0.0,
          0.0,
          0.0,
          0.0,
          0.0,
          0.0,
          0.0,
          0.0,
          0.0,
          0.0,
          0.0,
          0.0,
          0.0,
          0.0,
          0.0,
          0.0,
          0.0,
          0.0,
          0.0,
          0.0,
          0.0,
          0.0,
          0.0,
          0.0,
          0.0,
          0.0,
          0.0,
          0.0,
          0.0,
          0.0,
          0.0,
          0.0,
          0.0,
          0.0,
          0.0,
          0.0,
          0.0,
          0.0,
          0.0,
          0.0,
          0.0,
          0.0,
          0.0,
          0.0,
          0.0,
          0.0,
          0.0,
          0.0,
          0.0,
          0.0,
          0.0,
          0.0,
          0.0,
          0.0,
          0.0,
          0.0,
          0.0,
          0.0,
          0.0,
          0.0,
          0.0,
          0.0,
          0.0,
          0.0,
          0.0,
          0.0,
          0.0,
          0.0,
          0.0,
          0.0,
          0.0,
          0.0,
          0.0,
          0.0,
          0.0,
          0.0,
          0.0,
          0.0,
          0.0,
          0.0,
          0.0,
          0.0,
          0.0,
          0.0,
          0.0,
          0.0,
          0.0,
          0.0,
          0.0,
          0.0,
          0.0,
          0.0,
          0.0,
          0.0,
          0.0,
          0.0,
          0.0,
          0.0,
          0.0,
          0.0,
          0.0,
          0.0,
          0.0,
          0.0,
          0.0,
          0.0,
          0.0,
          0.0,
          0.0,
          0.0,
          0.0,
          0.0,
          0.0,
          0.0,
          0.0,
          0.0,
          0.0,
          0.0,
          0.0,
          0.0,
          0.0,
          0.0,
          0.0,
          0.0,
          0.0,
          0.0,
          0.0,
          0.0,
          0.0,
          0.0,
          0.0,
          0.0,
          0.0,
          0.0,
          0.0,
          0.0,
          0.10588235294117647,
          0.6039215686274509,
          0.9058823529411765,
          0.08627450980392157,
          0.0,
          0.0,
          0.0,
          0.0,
          0.0,
          0.0,
          0.0,
          0.0,
          0.0,
          0.0,
          0.0,
          0.0,
          0.0,
          0.0,
          0.0,
          0.0,
          0.0,
          0.0,
          0.0,
          0.0,
          0.0,
          0.050980392156862744,
          0.11372549019607843,
          0.4666666666666667,
          0.8470588235294118,
          0.996078431372549,
          0.803921568627451,
          0.0,
          0.0,
          0.0,
          0.0,
          0.0,
          0.0,
          0.0,
          0.0,
          0.0,
          0.0,
          0.0,
          0.0,
          0.0,
          0.0,
          0.0,
          0.0,
          0.0,
          0.0,
          0.0,
          0.0,
          0.0,
          0.6980392156862745,
          0.8509803921568627,
          0.996078431372549,
          0.996078431372549,
          0.996078431372549,
          0.788235294117647,
          0.12549019607843137,
          0.0,
          0.0,
          0.0,
          0.0,
          0.0,
          0.0,
          0.0,
          0.0,
          0.0,
          0.0,
          0.0,
          0.0,
          0.0,
          0.0,
          0.0,
          0.0,
          0.0,
          0.0,
          0.0,
          0.0,
          0.5450980392156862,
          0.996078431372549,
          0.996078431372549,
          0.996078431372549,
          0.9607843137254902,
          0.4588235294117647,
          0.011764705882352941,
          0.0,
          0.0,
          0.0,
          0.0,
          0.0,
          0.0,
          0.0,
          0.0,
          0.0,
          0.0,
          0.0,
          0.0,
          0.0,
          0.0,
          0.0,
          0.0,
          0.0,
          0.0,
          0.0,
          0.0,
          0.00784313725490196,
          0.7254901960784313,
          0.996078431372549,
          0.611764705882353,
          0.3843137254901961,
          0.15294117647058825,
          0.0,
          0.0,
          0.0,
          0.0,
          0.0,
          0.0,
          0.0,
          0.0,
          0.0,
          0.0,
          0.0,
          0.0,
          0.0,
          0.0,
          0.0,
          0.0,
          0.0,
          0.0,
          0.0,
          0.0,
          0.0,
          0.0,
          0.0784313725490196,
          0.996078431372549,
          0.9333333333333333,
          0.12549019607843137,
          0.0,
          0.0,
          0.0,
          0.0,
          0.0,
          0.0,
          0.0,
          0.0,
          0.0,
          0.0,
          0.0,
          0.0,
          0.0,
          0.0,
          0.0,
          0.0,
          0.0,
          0.0,
          0.0,
          0.0,
          0.0,
          0.0,
          0.0,
          0.0,
          0.30196078431372547,
          0.996078431372549,
          0.9921568627450981,
          0.8196078431372549,
          0.8509803921568627,
          0.26666666666666666,
          0.0,
          0.0,
          0.0,
          0.0,
          0.0,
          0.0,
          0.0,
          0.0,
          0.0,
          0.0,
          0.0,
          0.0,
          0.0,
          0.0,
          0.0,
          0.0,
          0.0,
          0.0,
          0.0,
          0.0,
          0.0,
          0.09803921568627451,
          0.8431372549019608,
          0.996078431372549,
          0.996078431372549,
          0.9411764705882353,
          0.996078431372549,
          0.45098039215686275,
          0.0,
          0.0,
          0.0,
          0.0,
          0.0,
          0.0,
          0.0,
          0.0,
          0.0,
          0.0,
          0.0,
          0.0,
          0.0,
          0.0,
          0.0,
          0.0,
          0.0,
          0.0,
          0.0,
          0.0,
          0.0,
          0.592156862745098,
          0.996078431372549,
          0.996078431372549,
          0.33725490196078434,
          0.11372549019607843,
          0.996078431372549,
          0.45098039215686275,
          0.0,
          0.0,
          0.0,
          0.0,
          0.0,
          0.0,
          0.0,
          0.0,
          0.0,
          0.0,
          0.0,
          0.0,
          0.0,
          0.0,
          0.0,
          0.0,
          0.0,
          0.0,
          0.0,
          0.0,
          0.5372549019607843,
          0.996078431372549,
          0.8823529411764706,
          0.16862745098039217,
          0.00392156862745098,
          0.34509803921568627,
          0.996078431372549,
          0.23921568627450981,
          0.0,
          0.0,
          0.0,
          0.0,
          0.0,
          0.0,
          0.0,
          0.0,
          0.0,
          0.0,
          0.0,
          0.0,
          0.0,
          0.0,
          0.0,
          0.0,
          0.0,
          0.0,
          0.0,
          0.0,
          0.6980392156862745,
          0.8627450980392157,
          0.16470588235294117,
          0.0,
          0.0,
          0.8117647058823529,
          0.7529411764705882,
          0.01568627450980392,
          0.0,
          0.0,
          0.0,
          0.0,
          0.0,
          0.0,
          0.0,
          0.0,
          0.0,
          0.0,
          0.0,
          0.0,
          0.0,
          0.0,
          0.0,
          0.0,
          0.0,
          0.0,
          0.0,
          0.0,
          0.10980392156862745,
          0.011764705882352941,
          0.0,
          0.0,
          0.12941176470588237,
          0.9372549019607843,
          0.4392156862745098,
          0.0,
          0.0,
          0.0,
          0.0,
          0.0,
          0.0,
          0.0,
          0.0,
          0.0,
          0.0,
          0.0,
          0.0,
          0.0,
          0.0,
          0.0,
          0.0,
          0.0,
          0.0,
          0.0,
          0.0,
          0.0,
          0.0,
          0.0,
          0.0,
          0.0,
          0.4627450980392157,
          0.996078431372549,
          0.3215686274509804,
          0.0,
          0.0,
          0.0,
          0.0,
          0.0,
          0.0,
          0.0,
          0.0,
          0.0,
          0.0,
          0.0,
          0.0,
          0.0,
          0.0,
          0.0,
          0.0,
          0.0,
          0.0,
          0.0,
          0.0,
          0.0,
          0.0,
          0.0,
          0.0,
          0.14901960784313725,
          0.9686274509803922,
          0.9607843137254902,
          0.18823529411764706,
          0.0,
          0.0,
          0.0,
          0.0,
          0.0,
          0.0,
          0.0,
          0.0,
          0.0,
          0.0,
          0.0,
          0.0,
          0.0,
          0.0,
          0.0,
          0.0,
          0.0,
          0.0,
          0.0,
          0.0,
          0.0,
          0.0,
          0.0,
          0.023529411764705882,
          0.7843137254901961,
          0.996078431372549,
          0.5607843137254902,
          0.0,
          0.0,
          0.0,
          0.0,
          0.0,
          0.0,
          0.0,
          0.0,
          0.0,
          0.0,
          0.0,
          0.0,
          0.0,
          0.0,
          0.0,
          0.0,
          0.0,
          0.0,
          0.0,
          0.0,
          0.0,
          0.0,
          0.0,
          0.0,
          0.6196078431372549,
          1.0,
          0.8392156862745098,
          0.26666666666666666,
          0.0,
          0.0,
          0.0,
          0.0,
          0.0,
          0.0,
          0.0,
          0.0,
          0.0,
          0.0,
          0.0,
          0.0,
          0.0,
          0.0,
          0.0,
          0.0,
          0.0,
          0.0,
          0.0,
          0.0,
          0.0,
          0.0,
          0.00784313725490196,
          0.4666666666666667,
          0.9607843137254902,
          0.8627450980392157,
          0.11764705882352941,
          0.0,
          0.0,
          0.0,
          0.0,
          0.0,
          0.0,
          0.0,
          0.0,
          0.0,
          0.0,
          0.0,
          0.0,
          0.0,
          0.0,
          0.0,
          0.0,
          0.0,
          0.0,
          0.0,
          0.0,
          0.0,
          0.0,
          0.027450980392156862,
          0.6588235294117647,
          0.996078431372549,
          0.8470588235294118,
          0.10980392156862745,
          0.0,
          0.0,
          0.0,
          0.0,
          0.0,
          0.0,
          0.0,
          0.0,
          0.0,
          0.0,
          0.0,
          0.0,
          0.0,
          0.0,
          0.0,
          0.0,
          0.0,
          0.0,
          0.0,
          0.0,
          0.0,
          0.0,
          0.396078431372549,
          0.8980392156862745,
          0.996078431372549,
          0.792156862745098,
          0.12549019607843137,
          0.0,
          0.0,
          0.0,
          0.0,
          0.0,
          0.0,
          0.0,
          0.0,
          0.0,
          0.0,
          0.0,
          0.0,
          0.0,
          0.0,
          0.0,
          0.0,
          0.0,
          0.0,
          0.0,
          0.0,
          0.0,
          0.0,
          0.0,
          0.3215686274509804,
          0.996078431372549,
          0.596078431372549,
          0.011764705882352941,
          0.0,
          0.0,
          0.0,
          0.0,
          0.0,
          0.0,
          0.0,
          0.0,
          0.0,
          0.0,
          0.0,
          0.0,
          0.0,
          0.0,
          0.0,
          0.0,
          0.0,
          0.0,
          0.0,
          0.0,
          0.0,
          0.0,
          0.0,
          0.0,
          0.0,
          0.0,
          0.0,
          0.0,
          0.0,
          0.0,
          0.0,
          0.0,
          0.0,
          0.0,
          0.0,
          0.0,
          0.0,
          0.0,
          0.0,
          0.0,
          0.0,
          0.0,
          0.0,
          0.0,
          0.0,
          0.0,
          0.0,
          0.0,
          0.0,
          0.0,
          0.0,
          0.0,
          0.0,
          0.0,
          0.0,
          0.0,
          0.0,
          0.0,
          0.0,
          0.0,
          0.0,
          0.0,
          0.0,
          0.0,
          0.0,
          0.0,
          0.0,
          0.0,
          0.0,
          0.0,
          0.0,
          0.0,
          0.0,
          0.0,
          0.0,
          0.0,
          0.0,
          0.0,
          0.0,
          0.0,
          0.0,
          0.0,
          0.0,
          0.0,
          0.0,
          0.0,
          0.0,
          0.0,
          0.0,
          0.0,
          0.0,
          0.0,
          0.0,
          0.0,
          0.0,
          0.0,
          0.0,
          0.0,
          0.0,
          0.0
        ],
        "dw": [
          0.0,
          0.0,
          0.0,
          0.0,
          0.0,
          0.0,
          0.0,
          0.0,
          0.0,
          0.0,
          0.0,
          0.0,
          0.0,
          0.0,
          0.0,
          0.0,
          0.0,
          0.0,
          0.0,
          0.0,
          0.0,
          0.0,
          0.0,
          0.0,
          0.0,
          0.0,
          0.0,
          0.0,
          0.0,
          0.0,
          0.0,
          0.0,
          0.0,
          0.0,
          0.0,
          0.0,
          0.0,
          0.0,
          0.0,
          0.0,
          0.0,
          0.0,
          0.0,
          0.0,
          0.0,
          0.0,
          0.0,
